svm_type c_svc
kernel_type rbf
gamma 8
nr_class 2
total_sv 124
rho 0.211446
label 1 0
nr_sv 67 57
SV
7.279003213735869 1:0.10380372 2:0.1931246 3:0.30556631 
128 1:-0.60205999 2:-0.56863624 3:0.30621051 
128 1:-0.69897 2:-0.69897 3:0.44638181 
56.13049199970582 1:-0.026872146 2:0.13033377 3:0.43552585 
43.18157221408963 1:0.0043213738 2:0.071882007 3:0.60638137 
0.1444348249223681 1:0.6560982 2:0.98900462 3:0.29159083 
128 1:-0.43179828 2:-0.21467016 3:0.43360984 
0.1995353461531595 1:0.54654266 2:0.66745295 3:0.23197903 
119.5891664488662 1:-0.18045606 2:-0.017728767 3:0.51228406 
128 1:-0.29242982 2:-0.075720714 3:0.60863299 
19.48482727644874 1:-0.4202164 2:-0.21467016 3:0.4542349 
128 1:-0.69897 2:-0.63827216 3:0.62920566 
58.91629413671202 1:-0.16749109 2:0.025305865 3:0.18780264 
0.6749606672961102 1:-0.086186148 2:0.075546961 3:0.49775872 
128 1:-0.12493874 2:0.064457989 3:0.4097641 
128 1:-0.39794001 2:-0.18045606 3:0.55557807 
128 1:-0.69897 2:-0.69897 3:0.44653717 
126.8776584044752 1:0.017033339 2:0.10380372 3:0.64147411 
128 1:-0.60205999 2:-0.38721614 3:0.54851226 
0.3881769101745607 1:0.53147892 2:0.76042248 3:-0.2069084 
0.09143815795569399 1:0.94792362 2:1 3:0.23754374 
0.7744813734964704 1:1 2:1 3:0.49899936 
0.7118772848325079 1:0.42813479 2:1 3:-0.69897 
0.00165520561616328 1:1 2:1 3:-0.69897 
6.61153954094845 1:-0.27572413 2:0.20139712 3:0.52192224 
128 1:-0.39794001 2:-0.24412514 3:0.55473138 
128 1:-0.39794001 2:-0.24412514 3:0.55473138 
0.001946492120123697 1:1 2:1 3:-0.69897 
0.001306795796253951 1:1 2:1 3:-0.69897 
0.002307664283604988 1:1 2:1 3:-0.69897 
128 1:-0.18045606 2:-0.013228266 3:0.62407573 
128 1:-0.25963731 2:-0.13667714 3:0.62654566 
128 1:-0.65757732 2:-0.61978876 3:0.65963101 
128 1:-0.65757732 2:-0.63827216 3:0.64008373 
128 1:-0.56863624 2:-0.4436975 3:0.34222523 
0.4517666964812898 1:0.24551267 2:0.54282543 3:0.54728231 
0.001025993150851198 1:1 2:1 3:-0.69897 
128 1:-0.15490196 2:-0.013228266 3:0.55132799 
128 1:-0.15490196 2:-0.013228266 3:0.55132799 
0.4522263954067297 1:0.71600334 2:0.99956549 3:0.65896484 
128 1:-0.69897 2:-0.56863624 3:0.4295908 
0.4908753013788876 1:0.40823997 2:0.66275783 3:-0.12320502 
0.7387900102297971 1:0.86805636 2:1 3:-0.024568191 
128 1:-0.22914799 2:-0.11350927 3:0.77815125 
128 1:-0.58502665 2:-0.46852108 3:0.64991872 
128 1:-0.48148606 2:-0.35654732 3:0.46329561 
128 1:-0.31875876 2:-0.075720714 3:0.56655533 
128 1:-0.37675071 2:-0.022276395 3:0.56419246 
128 1:-0.19382003 2:-0.0087739243 3:0.41463915 
0.1736571695665158 1:0.64836001 2:1 3:0.013679697 
0.003709471335111111 1:1 2:1 3:-0.69897 
0.005143946614728763 1:0.15533604 2:0.6599162 3:-0.69897 
0.9970228699816663 1:0.15533604 2:0.6599162 3:-0.69897 
0.008857473671530093 1:1 2:1 3:-0.69897 
128 1:-0.69897 2:-0.65757732 3:0.59889989 
128 1:-0.69897 2:-0.69897 3:0.59911857 
128 1:-0.45593196 2:-0.31875876 3:0.54740546 
128 1:-0.48148606 2:-0.35654732 3:0.58602438 
0.2247352909300739 1:0.65127801 2:1 3:-0.69897 
59.91033799096689 1:0.0043213738 2:0.20411998 3:0.64522571 
128 1:-0.537602 2:-0.37675071 3:0.3558345 
0.54001714446722 1:0.54777471 2:0.75663611 3:0.69600672 
0.265671682171453 1:0.43136376 2:0.68841982 3:0.4578819 
0.0007367972103799748 1:1 2:1 3:-0.69897 
128 1:-0.12493874 2:0.11058971 3:0.56133994 
0.05016959338931808 1:0.49831055 2:0.74350976 3:0.21138755 
1.026378351675955 1:1 2:1 3:-0.69897 
-128 1:-0.27572413 2:0.012837225 3:0.60906055 
-128 1:-0.27572413 2:0.012837225 3:0.60906055 
-0.8029290512761307 1:-0.20065945 2:-0.16749109 3:0.64187055 
-71.6479740978627 1:-0.20065945 2:-0.16749109 3:0.64187055 
-24.18949082244671 1:-0.65757732 2:-0.58502665 3:0.64601141 
-79.20317534464378 1:-0.46852108 2:-0.36653154 3:0.57495678 
-128 1:-0.11350927 2:0.045322979 3:0.48458453 
-128 1:-0.14874165 2:0.025305865 3:0.48387245 
-128 1:-0.38721614 2:-0.26760624 3:0.50256367 
-90.0196279917124 1:-0.55284197 2:-0.36653154 3:0.56371834 
-49.87282445102027 1:-0.69897 2:-0.58502665 3:0.39689645 
-74.97990077203744 1:-0.69897 2:-0.61978876 3:0.60616631 
-9.822165228538074 1:-0.69897 2:-0.69897 3:0.56749689 
-128 1:-0.4436975 2:-0.30980392 3:0.45954326 
-128 1:-0.60205999 2:-0.46852108 3:0.39128805 
-48.73705094980358 1:-0.096910013 2:0.049218023 3:0.39427653 
-128 1:-0.096910013 2:0.056904851 3:0.38003025 
-128 1:-0.0043648054 2:0.20411998 3:0.58523506 
-34.95429633075229 1:-0.69897 2:-0.58502665 3:0.60292771 
-69.19108542555864 1:-0.69897 2:-0.60205999 3:0.61055371 
-128 1:-0.20760831 2:-0.036212173 3:0.56336241 
-128 1:-0.26760624 2:-0.055517328 3:0.55966728 
-76.08649741500949 1:-0.69897 2:-0.69897 3:0.57634135 
-25.63821223884544 1:-0.69897 2:-0.69897 3:0.59417148 
-62.28809320138425 1:-0.69897 2:-0.69897 3:0.59417148 
-62.06609415018182 1:-0.49485002 2:-0.19382003 3:0.53326352 
-95.34151260291024 1:-0.20760831 2:-0.022276395 3:0.31344537 
-59.14175017157612 1:-0.33724217 2:-0.22184875 3:0.41027096 
-4.657786047092037 1:-0.537602 2:-0.30103 3:0.32366454 
-68.43058710276158 1:-0.56863624 2:-0.32790214 3:0.36847284 
-66.44207380601037 1:-0.56863624 2:-0.46852108 3:0.21404868 
-128 1:-0.031517051 2:0.053078443 3:0.66492389 
-128 1:-0.065501549 2:0.045322979 3:0.66511174 
-128 1:-0.25963731 2:-0.065501549 3:0.54641927 
-128 1:-0.65757732 2:-0.63827216 3:0.67329744 
-25.32957902350176 1:-0.1739252 2:-0.055517328 3:0.71675436 
-27.74129423635834 1:-0.69897 2:-0.69897 3:0.57379958 
-128 1:-0.4436975 2:-0.14874165 3:0.5349141 
-128 1:-0.29242982 2:-0.16749109 3:0.67108023 
-114.571107007249 1:-0.33724217 2:-0.22184875 3:0.67182056 
-127.4128989356788 1:-0.61978876 2:-0.52287875 3:0.6745856 
-21.02736887708463 1:-0.69897 2:-0.58502665 3:0.60411801 
-128 1:-0.50863831 2:-0.38721614 3:0.46597737 
-1.599540694221989 1:-0.69897 2:-0.69897 3:0.57507233 
-5.358539042547312 1:-0.69897 2:-0.61978876 3:0.60852603 
-128 1:-0.52287875 2:-0.38721614 3:0.56502093 
-11.65597334812209 1:-0.65757732 2:-0.60205999 3:0.39863432 
-50.88742078900534 1:-0.69897 2:-0.69897 3:0.43711609 
-22.25728573213366 1:-0.69897 2:-0.60205999 3:0.38916608 
-70.23587306536142 1:-0.69897 2:-0.69897 3:0.42209716 
-9.048471964339114 1:0.0086001718 2:0.089905111 3:0.39689645 
-65.54272734002949 1:-0.49485002 2:-0.36653154 3:0.40001964 
-124.4046504720825 1:-0.4202164 2:-0.1426675 3:0.58927922 
-2.745224134005745 1:-0.61978876 2:-0.61978876 3:0.72337357 
-33.07271427311269 1:-0.65757732 2:-0.60205999 3:0.39863432 
-128 1:-0.69897 2:-0.69897 3:0.58647478 
-128 1:-0.65757732 2:-0.63827216 3:0.37069809 
